svm_type nu_svc
kernel_type linear
nr_class 4
total_sv 31
rho -19.1679445276593 15.746727884417533 -10.376110377626976 6.170954832145197 -6.569777973660393 -4.601229272510127
label 48 37 47 34
nr_sv 9 12 5 5
SV
0.0014974641045301578 0.0 0.0 1:0.0075 2:-347.0 3:0.4 4:-0.8 5:1.0 6:0.08208333333333333 7:0.00125 8:0.007916666666666667 9:0.0 10:0.0575 11:-258.0 12:-5.0 13:-83.0 14:-0.3999999999999999 15:0.10208333333333333 16:0.06125 17:0.7216666666666667 18:0.005 19:0.04958333333333333 20:-263.8 21:-1.2000000000000002 22:-77.4 23:-4.0 24:0.043333333333333335 25:0.017083333333333332 26:0.6370833333333333 27:0.035833333333333335 28:0.0436 29:-328.8 30:-1.0 31:-87.4 32:-2.0 33:0.0636 34:0.0152 35:0.6844 36:0.0192 37:0.0372 38:-367.4 39:-1.6 40:-50.4 41:0.19999999999999996 42:0.2144 43:0.0272 44:0.4284 45:0.0096 46:0.0336 47:-356.4 48:-6.6 49:-54.8 50:-1.4 51:0.0204 52:0.0676 53:0.4268 54:0.0172 55:2.9591836734693877 56:6.732921326859603 57:0.040253342716396905 
0.0 6.205171430757931E-4 0.0 1:0.006666666666666667 2:-348.4 3:1.0 4:1.0 5:0.0 6:0.09875 7:0.0 8:0.0 9:0.002916666666666667 10:0.065 11:-242.4 12:-8.4 13:-93.8 14:-1.7999999999999998 15:0.13625 16:0.08 17:0.8004166666666667 18:0.015833333333333335 19:0.0375 20:-278.8 21:-1.6 22:-61.6 23:-4.4 24:0.010416666666666666 25:0.022916666666666665 26:0.46291666666666664 27:0.027916666666666666 28:0.0456 29:-321.4 30:-2.0 31:-90.0 32:-5.8 33:0.0648 34:0.0192 35:0.6576 36:0.0564 37:0.0328 38:-375.0 39:-1.0 40:-40.0 41:-3.2 42:0.1988 43:0.0116 44:0.3408 45:0.0184 46:0.032 47:-361.4 48:-7.800000000000001 49:-49.6 50:-0.3999999999999999 51:0.0344 52:0.0788 53:0.3676 54:0.0072 55:2.9760252626641113 56:-9.074758021008682 57:0.038626050905022094 
0.0 0.0 2.4101008958828506E-4 1:0.014166666666666666 2:-333.6 3:1.0 4:-14.8 5:1.0 6:0.13 7:0.0 8:0.0925 9:0.0 10:0.07 11:-262.2 12:-17.0 13:-62.4 14:-4.8 15:0.20416666666666666 16:0.13666666666666666 17:0.4475 18:0.052083333333333336 19:0.005 20:-349.4 21:1.0 22:1.0 23:1.0 24:0.004166666666666667 25:0.0 26:0.0 27:0.0 28:0.0416 29:-338.0 30:-3.8 31:-73.2 32:-4.2 33:0.1036 34:0.038 35:0.5496 36:0.0452 37:0.034 38:-373.6 39:-8.8 40:-37.2 41:0.4 42:0.2284 43:0.062 44:0.2712 45:0.0048 46:0.0208 47:-398.8 48:-8.0 49:-12.4 50:0.0 51:0.0416 52:0.0668 53:0.0828 54:0.0072 55:2.9827352722442333 56:9.84901451111703 57:0.03365194516225177 
0.0017762654274414045 0.0011936226895388731 0.0 1:0.013333333333333334 2:-336.0 3:1.0 4:-12.4 5:1.0 6:0.08875 7:0.0 8:0.11583333333333333 9:0.0 10:0.07208333333333333 11:-263.0 12:-11.4 13:-72.4 14:0.4 15:0.1825 16:0.0975 17:0.5579166666666666 18:0.002916666666666667 19:0.004166666666666667 20:-344.4 21:1.0 22:-4.0 23:1.0 24:0.0025 25:0.0 26:0.021666666666666667 27:0.0 28:0.0404 29:-335.0 30:-4.6 31:-80.2 32:0.6 33:0.0712 34:0.0468 35:0.6732 36:0.002 37:0.0396 38:-360.8 39:-5.6 40:-53.6 41:0.8 42:0.2064 43:0.05 44:0.4276 45:8.0E-4 46:0.0164 47:-403.4 48:-1.6 49:-15.0 50:0.8 51:0.0316 52:0.0156 53:0.1196 54:8.0E-4 55:3.0555730145610367 56:15.892830980337362 57:0.03284976118611811 
0.0 1.3099600260815775E-4 7.575440008930008E-5 1:0.010833333333333334 2:-341.6 3:1.0 4:-4.6 5:-1.2000000000000002 6:0.12333333333333334 7:0.0 8:0.015833333333333335 9:0.0075 10:0.0625 11:-261.0 12:-9.0 13:-74.6 14:-1.7999999999999998 15:0.15625 16:0.08583333333333333 17:0.5579166666666666 18:0.020833333333333332 19:0.028333333333333332 20:-315.6 21:1.0 22:-26.0 23:-5.8 24:0.0225 25:0.0 26:0.18708333333333332 27:0.08583333333333333 28:0.0448 29:-335.0 30:1.0 31:-77.8 32:-7.4 33:0.0136 34:0.0 35:0.4924 36:0.0876 37:0.034 38:-376.0 39:-6.6 40:-36.8 41:0.19999999999999996 42:0.2596 43:0.0616 44:0.266 45:0.0072 46:0.0308 47:-377.6 48:-3.4000000000000004 49:-34.4 50:-3.8 51:0.0592 52:0.036 53:0.272 54:0.0328 55:3.0011104428270903 56:-17.81888891452278 57:0.03802563058194788 
0.00237984369956431 0.0 0.0 1:0.02 2:-330.6 3:0.4 4:-16.6 5:0.4 6:0.07416666666666667 7:0.00625 8:0.15083333333333335 9:0.007083333333333333 10:0.035 11:-328.6 12:-2.0 13:-15.0 14:-0.8 15:0.25166666666666665 16:0.022083333333333333 17:0.11958333333333333 18:0.010833333333333334 19:0.05125 20:-263.4 21:0.0 22:-78.8 23:-4.2 24:0.01625 25:0.009583333333333333 26:0.7008333333333333 27:0.06833333333333333 28:0.046 29:-350.8 30:-1.0 31:-66.6 32:-0.8 33:0.1648 34:0.0128 35:0.6072 36:0.0216 37:0.0316 38:-383.8 39:-2.4 40:-32.8 41:-0.19999999999999996 42:0.268 43:0.0348 44:0.2932 45:0.016 46:0.028 47:-379.2 48:-1.7999999999999998 49:-29.4 50:-8.8 51:0.0864 52:0.0232 53:0.196 54:0.1244 55:3.0195806919480295 56:13.28486648490219 57:0.036413726597582664 
0.0012307113435172823 0.0 3.775659060094776E-4 1:0.01625 2:-337.6 3:-0.3999999999999999 4:-7.6 5:-0.8 6:0.06541666666666666 7:0.010833333333333334 8:0.05333333333333334 9:0.020833333333333332 10:0.03208333333333333 11:-318.8 12:-2.2 13:-26.4 14:1.0 15:0.21458333333333332 16:0.03 17:0.175 18:0.0 19:0.04583333333333333 20:-297.2 21:1.0 22:-42.8 23:-7.4 24:0.01875 25:0.0 26:0.39375 27:0.12333333333333334 28:0.0428 29:-355.0 30:-3.5999999999999996 31:-59.8 32:-0.8 33:0.168 34:0.048 35:0.476 36:0.02 37:0.0292 38:-389.6 39:0.0 40:-30.6 41:1.0 42:0.2496 43:0.0104 44:0.284 45:0.0 46:0.0248 47:-385.2 48:-3.5999999999999996 49:-21.8 50:-8.6 51:0.032 52:0.0224 53:0.1416 54:0.1312 55:3.0249552094466923 56:15.255118703057775 57:0.033319943590628114 
0.0 0.0 5.756626859711951E-4 1:0.0225 2:-334.8 3:-0.3999999999999999 4:-11.4 5:0.19999999999999996 6:0.13041666666666665 7:0.009166666666666667 8:0.09791666666666667 9:0.005833333333333334 10:0.05 11:-301.8 12:-5.8 13:-38.6 14:-0.19999999999999996 15:0.25708333333333333 16:0.055 17:0.3016666666666667 18:0.010833333333333334 19:0.032916666666666664 20:-299.8 21:0.8 22:-45.0 23:-2.4 24:0.0020833333333333333 25:4.166666666666667E-4 26:0.3575 27:0.042916666666666665 28:0.0388 29:-370.0 30:-3.2 31:-46.2 32:0.19999999999999996 33:0.1532 34:0.0324 35:0.4312 36:0.0056 37:0.0312 38:-388.4 39:-4.2 40:-27.2 41:0.6 42:0.3084 43:0.0464 44:0.242 45:0.004 46:0.0336 47:-352.2 48:-1.2000000000000002 49:-60.6 50:-5.2 51:0.0272 52:0.0112 53:0.424 54:0.0756 55:3.014956469937583 56:12.907408671265838 57:0.03577886486661325 
8.250894072018263E-6 0.0 0.0 1:0.0075 2:-347.0 3:0.4 4:-0.8 5:1.0 6:0.08208333333333333 7:0.00125 8:0.007916666666666667 9:0.0 10:0.0575 11:-258.0 12:-5.0 13:-83.0 14:-0.3999999999999999 15:0.10208333333333333 16:0.06125 17:0.7216666666666667 18:0.005 19:0.04958333333333333 20:-263.8 21:-1.2000000000000002 22:-77.4 23:-4.0 24:0.043333333333333335 25:0.017083333333333332 26:0.6370833333333333 27:0.035833333333333335 28:0.0436 29:-328.8 30:-1.0 31:-87.4 32:-2.0 33:0.0636 34:0.0152 35:0.6844 36:0.0192 37:0.0372 38:-367.4 39:-1.6 40:-50.4 41:0.19999999999999996 42:0.2144 43:0.0272 44:0.4284 45:0.0096 46:0.0336 47:-356.4 48:-6.6 49:-54.8 50:-1.4 51:0.0204 52:0.0676 53:0.4268 54:0.0172 55:2.9591836734693877 56:6.732921326859603 57:0.040253342716396905 
-0.0033015998735301953 0.0 0.0 1:0.007083333333333333 2:-349.4 3:1.0 4:1.0 5:1.0 6:0.02 7:0.0 8:0.0 9:0.0 10:0.04958333333333333 11:-301.2 12:-0.3999999999999999 13:-44.6 14:-0.19999999999999996 15:0.17291666666666666 16:0.013333333333333334 17:0.44333333333333336 18:0.008333333333333333 19:0.05125 20:-276.4 21:-2.8 22:-65.4 23:-1.7999999999999998 24:0.05708333333333333 25:0.035 26:0.6020833333333333 27:0.022083333333333333 28:0.0556 29:-335.0 30:-3.8 31:-81.2 32:0.8 33:0.1556 34:0.038 35:0.7684 36:0.0016 37:0.026 38:-374.0 39:0.19999999999999996 40:-46.0 41:0.6 42:0.0324 43:0.004 44:0.4392 45:0.0032 46:0.0312 47:-390.2 48:0.19999999999999996 49:-27.4 50:-1.7999999999999998 51:0.0696 52:0.0088 53:0.2076 54:0.0212 55:3.0555730145610367 56:15.892830980337362 57:0.03843830976964858 
-0.002030654014079565 1.2137348185477137E-4 0.0 1:0.014583333333333334 2:-336.0 3:-4.2 4:-7.199999999999999 5:1.0 6:0.04083333333333333 7:0.0375 8:0.035833333333333335 9:0.0 10:0.04583333333333333 11:-281.6 12:0.0 13:-65.0 14:0.19999999999999996 15:0.09958333333333333 16:0.0075 17:0.5595833333333333 18:0.005416666666666667 19:0.037083333333333336 20:-297.0 21:1.0 22:-44.4 23:-6.0 24:0.010416666666666666 25:0.0 26:0.37125 27:0.08458333333333333 28:0.0452 29:-350.8 30:-3.0 31:-66.4 32:1.0 33:0.1152 34:0.0248 35:0.5988 36:0.0 37:0.026 38:-363.0 39:-2.0 40:-53.6 41:-0.6000000000000001 42:0.0444 43:0.018 44:0.4004 45:0.01 46:0.0304 47:-385.8 48:-5.0 49:-22.0 50:-6.4 51:0.0384 52:0.05 53:0.1176 54:0.0832 55:3.0393778271235043 56:14.782726042615675 57:0.03480622038274888 
-0.0 3.206378129013297E-4 0.0 1:0.014583333333333334 2:-344.2 3:0.4 4:-2.0 5:-0.6000000000000001 6:0.03166666666666667 7:0.004583333333333333 8:0.014583333333333334 9:0.017916666666666668 10:0.06916666666666667 11:-231.6 12:-3.0 13:-102.2 14:-9.6 15:0.16166666666666665 16:0.041666666666666664 17:0.9441666666666667 18:0.12291666666666666 19:0.01125 20:-327.6 21:-1.2000000000000002 22:-18.0 23:0.4 24:0.0020833333333333333 25:0.00625 26:0.12833333333333333 27:0.005416666666666667 28:0.0348 29:-371.4 30:-3.8 31:-44.8 32:0.8 33:0.1136 34:0.0472 35:0.4036 36:0.002 37:0.0296 38:-367.0 39:0.6 40:-53.6 41:0.8 42:0.0432 43:0.004 44:0.4764 45:0.0016 46:0.0288 47:-376.2 48:-1.2000000000000002 49:-26.4 50:-15.399999999999999 51:0.0524 52:0.006 53:0.1636 54:0.1808 55:2.9568604532693605 56:6.340191745909909 57:0.03281957343806026 
-0.0 1.1338505050074138E-4 1.2896974563207967E-4 1:0.0075 2:-346.2 3:1.0 4:1.0 5:-2.2 6:0.014583333333333334 7:0.0 8:0.0 9:0.024583333333333332 10:0.057916666666666665 11:-256.4 12:-2.2 13:-80.6 14:-7.199999999999999 15:0.06041666666666667 16:0.015833333333333335 17:0.8079166666666666 18:0.07291666666666667 19:0.017083333333333332 20:-328.6 21:1.0 22:-7.199999999999999 23:-11.6 24:0.01375 25:0.0 26:0.035416666666666666 27:0.11208333333333333 28:0.0276 29:-368.6 30:-1.2000000000000002 31:-50.4 32:1.0 33:0.0084 34:0.0132 35:0.4656 36:0.0 37:0.0272 38:-371.0 39:0.0 40:-48.0 41:-0.19999999999999996 42:0.052 43:0.0028 44:0.484 45:0.0036 46:0.028 47:-385.2 48:0.6 49:-7.0 50:-27.6 51:0.0696 52:0.002 53:0.0276 54:0.2592 55:2.966984791083469 56:-7.907162702958458 57:0.029057809034551386 
-5.240602095172426E-4 1.8384751320632146E-4 4.0374198750691543E-4 1:0.02875 2:-325.6 3:-6.6 4:-15.0 5:0.8 6:0.09375 7:0.075 8:0.13791666666666666 9:8.333333333333334E-4 10:0.059166666666666666 11:-266.6 12:-15.0 13:-61.8 14:-3.0 15:0.13541666666666666 16:0.145 17:0.5004166666666666 18:0.03833333333333333 19:0.014166666666666666 20:-317.6 21:0.19999999999999996 22:-27.6 23:-1.4 24:0.0033333333333333335 25:0.005 26:0.22208333333333333 27:0.027916666666666666 28:0.0268 29:-372.8 30:-5.8 31:-39.4 32:-1.2000000000000002 33:0.022 34:0.0556 35:0.302 36:0.016 37:0.0456 38:-348.0 39:-22.8 40:-48.4 41:0.0 42:0.0872 43:0.2268 44:0.3712 45:0.012 46:0.0284 47:-388.2 48:-1.0 49:-28.0 50:-2.0 51:0.106 52:0.014 53:0.214 54:0.032 55:3.034234762080917 56:14.410109479855759 57:0.03459068808162819 
-0.0 1.0646000103748998E-4 0.0 1:0.0075 2:-349.4 3:1.0 4:1.0 5:1.0 6:0.059583333333333335 7:0.0 8:0.0 9:0.0 10:0.059166666666666666 11:-275.0 12:-11.0 13:-57.2 14:-3.2 15:0.13041666666666665 16:0.10166666666666667 17:0.4404166666666667 18:0.049166666666666664 19:0.01875 20:-324.6 21:0.4 22:-16.4 23:-5.8 24:0.014583333333333334 25:0.0025 26:0.13541666666666666 27:0.07416666666666667 28:0.0268 29:-379.8 30:-3.8 31:-36.6 32:1.0 33:0.1252 34:0.0368 35:0.276 36:0.0 37:0.0424 38:-348.2 39:-11.4 40:-57.6 41:-2.0 42:0.0936 43:0.0896 44:0.4908 45:0.0364 46:0.0156 47:-391.8 48:0.19999999999999996 49:-16.2 50:-11.4 51:0.018 52:0.004 53:0.0948 54:0.1212 55:2.9827352722442333 56:9.84901451111703 57:0.02960254097260322 
-5.303331652653152E-4 0.0 5.169818459474783E-4 1:0.015833333333333335 2:-339.2 3:1.0 4:-9.2 5:1.0 6:0.02 7:0.0 8:0.07583333333333334 9:0.0 10:0.032916666666666664 11:-324.2 12:1.0 13:-9.2 14:-14.0 15:0.11791666666666667 16:0.0 17:0.05125 18:0.16625 19:0.04375 20:-268.6 21:1.0 22:-76.2 23:-2.6 24:0.01625 25:0.0 26:0.6995833333333333 27:0.02875 28:0.0452 29:-369.4 30:1.0 31:-48.0 32:-2.8 33:0.1076 34:0.0 35:0.4732 36:0.042 37:0.0256 38:-377.4 39:-0.19999999999999996 40:-33.4 41:-8.2 42:0.0948 43:0.0092 44:0.2276 45:0.072 46:0.022 47:-378.2 48:1.0 49:-32.4 50:-9.6 51:0.0192 52:0.0 53:0.2 54:0.1 55:2.9977778803487714 56:11.386428796409188 57:0.03223267684297701 
-4.025901104855547E-4 0.0 0.0 1:0.00375 2:-349.4 3:1.0 4:1.0 5:1.0 6:0.009166666666666667 7:0.0 8:0.0 9:0.0 10:0.04583333333333333 11:-321.6 12:0.6 13:-26.2 14:0.8 15:0.07375 16:0.0020833333333333333 17:0.22458333333333333 18:0.0016666666666666668 19:0.03666666666666667 20:-297.0 21:-1.4 22:-39.8 23:-8.2 24:0.03625 25:0.014166666666666666 26:0.335 27:0.07875 28:0.042 29:-357.0 30:-2.6 31:-57.0 32:-2.6 33:0.0676 34:0.0204 35:0.4896 36:0.0296 37:0.0248 38:-374.0 39:1.0 40:-47.2 41:1.0 42:0.008 43:0.0 44:0.4712 45:0.0 46:0.0244 47:-380.6 48:1.0 49:-31.4 50:-8.2 51:0.0072 52:0.0 53:0.2244 54:0.0764 55:2.9977778803487714 56:11.386428796409188 57:0.031676941035339475 
-0.0 0.0 7.42106214633541E-5 1:0.008333333333333333 2:-349.4 3:1.0 4:1.0 5:1.0 6:0.0525 7:0.0 8:0.0 9:0.0 10:0.04791666666666667 11:-312.6 12:-3.0 13:-26.2 14:-4.6 15:0.1825 16:0.03958333333333333 17:0.20208333333333334 18:0.06583333333333333 19:0.012916666666666667 20:-329.8 21:-1.0 22:-6.8 23:-8.8 24:0.01625 25:0.0175 26:0.06375 27:0.06916666666666667 28:0.0352 29:-378.4 30:-4.6 31:-37.0 32:0.8 33:0.2016 34:0.0544 35:0.3156 36:0.002 37:0.028 38:-382.8 39:-0.6000000000000001 40:-35.2 41:-0.6000000000000001 42:0.1364 43:0.0164 44:0.324 45:0.0148 46:0.0136 47:-399.2 48:1.0 49:-5.4 50:-15.600000000000001 51:0.026 52:0.0 53:0.0428 54:0.1328 55:2.9793122597379034 56:9.462322208025617 57:0.026840650988629762 
-0.0 1.0880918600104346E-4 0.0 1:0.01375 2:-348.8 3:1.0 4:0.8 5:0.6 6:0.07458333333333333 7:0.0 8:4.166666666666667E-4 9:0.0020833333333333333 10:0.0675 11:-241.2 12:-10.2 13:-84.8 14:-10.2 15:0.15416666666666667 16:0.10583333333333333 17:0.75125 18:0.11958333333333333 19:0.004166666666666667 20:-343.2 21:1.0 22:-1.7999999999999998 23:-2.4 24:0.0025 25:0.0 26:0.0075 27:0.024166666666666666 28:0.0336 29:-369.2 30:-8.2 31:-40.8 32:-1.0 33:0.1052 34:0.0652 35:0.3036 36:0.0232 37:0.0348 38:-371.2 39:-0.6000000000000001 40:-48.0 41:0.6 42:0.1152 43:0.0224 44:0.4508 45:0.0016 46:0.0152 47:-399.0 48:1.0 49:-2.8 50:-18.4 51:0.034 52:0.0 53:0.0104 54:0.186 55:2.9616457034566097 56:7.125016348901798 57:0.02939145071331584 
-0.0 0.0 2.6717639499387544E-4 1:0.007083333333333333 2:-349.4 3:1.0 4:1.0 5:1.0 6:0.022083333333333333 7:0.0 8:0.0 9:0.0 10:0.01125 11:-347.6 12:1.0 13:-0.8 14:1.0 15:0.13083333333333333 16:0.0 17:0.00625 18:0.0 19:0.06208333333333333 20:-249.6 21:-0.3999999999999999 22:-89.4 23:-7.0 24:0.020416666666666666 25:0.007916666666666667 26:0.7883333333333333 27:0.06833333333333333 28:0.034 29:-378.2 30:-0.6000000000000001 31:-41.4 32:1.0 33:0.2084 34:0.0092 35:0.4056 36:0.0 37:0.0272 38:-364.4 39:1.0 40:-56.8 41:1.0 42:0.0 43:0.0 44:0.5504 45:0.0 46:0.0232 47:-382.0 48:1.0 49:-28.2 50:-10.0 51:0.028 52:0.0 53:0.1372 54:0.0916 55:3.006102359410268 56:12.149091607441349 57:0.02923388476911861 
-1.0329809624729797E-4 0.0 0.0 1:0.011666666666666667 2:-346.0 3:-0.19999999999999996 4:-1.2000000000000002 5:1.0 6:0.041666666666666664 7:0.009583333333333333 8:0.013333333333333334 9:0.0 10:0.06416666666666666 11:-275.6 12:-23.0 13:-42.6 14:-5.2 15:0.23458333333333334 16:0.20791666666666667 17:0.3258333333333333 18:0.05333333333333334 19:0.009166666666666667 20:-346.6 21:1.0 22:-1.0 23:0.19999999999999996 24:0.017083333333333332 25:0.0 26:0.0075 27:0.00875 28:0.0372 29:-369.0 30:-14.2 31:-33.4 32:-2.6 33:0.1504 34:0.1444 35:0.2584 36:0.0264 37:0.0332 38:-371.4 39:-10.8 40:-34.4 41:-2.6 42:0.104 43:0.0712 44:0.2644 45:0.0324 46:0.0336 47:-407.0 48:-2.0 49:-10.0 50:-0.19999999999999996 51:0.0748 52:0.0232 53:0.078 54:0.0116 55:3.078928398533916 56:17.354024636261325 57:0.035170747489952914 
-4.387674976356023E-4 -0.0 2.7119812857252956E-5 1:0.04041666666666666 2:-299.6 3:-7.800000000000001 4:-36.0 5:-3.0 6:0.16833333333333333 7:0.07291666666666667 8:0.23958333333333334 9:0.03333333333333333 10:0.08041666666666666 11:-245.8 12:-9.0 13:-88.4 14:-3.2 15:0.38125 16:0.06375 17:0.7145833333333333 18:0.057916666666666665 19:0.02 20:-319.2 21:-3.5999999999999996 22:-24.6 23:1.0 24:0.01125 25:0.04666666666666667 26:0.18666666666666668 27:0.0 28:0.0656 29:-314.0 30:-13.6 31:-82.6 32:-9.0 33:0.1712 34:0.1264 35:0.6132 36:0.1172 37:0.0352 38:-351.2 39:-6.0 40:-63.0 41:1.0 42:0.042 43:0.042 44:0.4604 45:0.0 46:0.0384 47:-387.2 48:-2.6 49:-30.0 50:0.6 51:0.4132 52:0.0244 53:0.2032 54:0.004 55:2.9591836734693877 56:6.732921326859603 57:0.04897959183673469 
-0.0 -5.294388218109522E-4 1.4334173732592008E-4 1:0.016666666666666666 2:-336.8 3:-1.0 4:-8.8 5:0.19999999999999996 6:0.09833333333333333 7:0.005833333333333334 8:0.0575 9:0.0033333333333333335 10:0.09166666666666666 11:-275.2 12:-6.0 13:-60.4 14:-4.8 15:0.4195833333333333 16:0.05541666666666667 17:0.4866666666666667 18:0.08375 19:0.018333333333333333 20:-343.0 21:0.8 22:-2.2 23:-2.0 24:0.03375 25:0.0025 26:0.019166666666666665 27:0.0325 28:0.0568 29:-363.0 30:-5.2 31:-37.2 32:-13.8 33:0.2664 34:0.0644 35:0.2752 36:0.1876 37:0.0352 38:-339.2 39:-2.6 40:-78.4 41:1.0 42:0.0128 43:0.0204 44:0.662 45:0.0 46:0.0416 47:-391.8 48:-4.6 49:-22.2 50:-0.6000000000000001 51:0.3776 52:0.0368 53:0.18 54:0.0168 55:2.9827352722442333 56:-9.84901451111703 57:0.046637965494573 
-8.596491373701845E-4 -3.821541766896542E-4 0.0 1:0.02125 2:-339.6 3:-1.0 4:-4.2 5:-1.6 6:0.15833333333333333 7:0.02625 8:0.017916666666666668 9:0.03791666666666667 10:0.09666666666666666 11:-232.4 12:-7.199999999999999 13:-103.2 14:-3.5999999999999996 15:0.33791666666666664 16:0.09041666666666667 17:0.855 18:0.0575 19:0.019166666666666665 20:-326.8 21:-2.6 22:-18.0 23:1.0 24:0.017083333333333332 25:0.04958333333333333 26:0.16125 27:0.0 28:0.0592 29:-329.8 30:-4.6 31:-78.8 32:-6.0 33:0.1024 34:0.0668 35:0.5964 36:0.0908 37:0.0348 38:-355.4 39:-2.8 40:-61.8 41:0.8 42:0.056 43:0.0376 44:0.5224 45:8.0E-4 46:0.0464 47:-381.4 48:-2.8 49:-34.6 50:-0.3999999999999999 51:0.406 52:0.0416 53:0.2708 54:0.0068 55:2.9760252626641113 56:-9.074758021008682 57:0.049122260390082446 
-6.467192002170374E-4 -0.0 1.8915525312005032E-4 1:0.0125 2:-349.4 3:1.0 4:1.0 5:1.0 6:0.19041666666666668 7:0.0 8:0.0 9:0.0 10:0.05625 11:-285.6 12:-0.19999999999999996 13:-61.0 14:0.4 15:0.1825 16:0.010833333333333334 17:0.4270833333333333 18:0.008333333333333333 19:0.032916666666666664 20:-321.0 21:-1.2000000000000002 22:-22.8 23:-1.4 24:0.035 25:0.01875 26:0.15958333333333333 27:0.03125 28:0.0388 29:-343.4 30:-3.2 31:-71.4 32:-1.2000000000000002 33:0.0312 34:0.0344 35:0.5064 36:0.0268 37:0.0312 38:-345.2 39:1.0 40:-76.0 41:1.0 42:0.0032 43:0.0 44:0.6084 45:0.0 46:0.0412 47:-387.2 48:-0.19999999999999996 49:-31.799999999999997 50:0.0 51:0.44 52:0.0108 53:0.2532 54:0.0132 55:3.0670013519388397 56:-16.626209500429947 57:0.03775188735173776 
-0.0 -4.292004700109148E-5 0.0 1:0.017916666666666668 2:-337.8 3:-0.19999999999999996 4:-9.4 5:1.0 6:0.10708333333333334 7:0.004583333333333333 8:0.08166666666666667 9:0.0 10:0.06791666666666667 11:-212.6 12:-0.19999999999999996 13:-134.2 14:0.6 15:0.04958333333333333 16:0.01 17:1.0879166666666666 18:0.0033333333333333335 19:0.010833333333333334 20:-342.6 21:-1.7999999999999998 22:-1.2000000000000002 23:-0.8 24:0.020416666666666666 25:0.02375 26:0.012916666666666667 27:0.020833333333333332 28:0.0364 29:-357.6 30:-3.2 31:-55.6 32:-2.8 33:0.028 34:0.0348 35:0.4636 36:0.0492 37:0.0264 38:-352.8 39:1.0 40:-68.4 41:1.0 42:8.0E-4 43:0.0 44:0.5148 45:0.0 46:0.0324 47:-374.6 48:-0.19999999999999996 49:-45.0 50:0.6 51:0.1728 52:0.0044 53:0.35 54:0.0032 55:3.0555730145610367 56:-15.892830980337362 57:0.0324408429970793 
-0.0 -0.0 -9.565298657845233E-5 1:0.0275 2:-306.4 3:1.0 4:-42.0 5:1.0 6:4.166666666666667E-4 7:0.0 8:0.4191666666666667 9:0.0 10:0.0475 11:-280.6 12:-0.3999999999999999 13:-62.0 14:-3.4000000000000004 15:0.13166666666666665 16:0.009166666666666667 17:0.5575 18:0.035833333333333335 19:0.015416666666666667 20:-339.0 21:0.4 22:-8.8 23:1.0 24:0.12 25:0.0033333333333333335 26:0.06541666666666666 27:0.0 28:0.036 29:-369.2 30:-0.19999999999999996 31:-46.4 32:-3.4000000000000004 33:0.1492 34:0.008 35:0.3672 36:0.0344 37:0.0148 38:-393.4 39:0.6 40:-27.4 41:1.0 42:0.0236 43:0.0012 44:0.2692 45:0.0 46:0.0392 47:-368.8 48:0.4 49:-51.8 50:1.0 51:0.1536 52:0.0032 53:0.4652 54:0.0 55:3.072902893831626 56:-16.990823291986167 57:0.030495904689137085 
-6.407642869923679E-4 -3.291702884434266E-4 -1.0095560111390438E-4 1:0.024583333333333332 2:-322.4 3:-1.4 4:-23.6 5:1.0 6:0.024583333333333332 7:0.0175 8:0.23791666666666667 9:0.0 10:0.04666666666666667 11:-282.2 12:-3.0 13:-58.8 14:-2.4 15:0.0675 16:0.03958333333333333 17:0.5566666666666666 18:0.04041666666666666 19:0.009583333333333333 20:-347.8 21:-0.19999999999999996 22:0.6 23:1.0 24:0.08833333333333333 25:0.005 26:8.333333333333334E-4 27:0.0 28:0.04 29:-362.0 30:-0.19999999999999996 31:-53.2 32:-3.8 33:0.1284 34:0.0048 35:0.482 36:0.0548 37:0.0068 38:-411.8 39:0.4 40:-8.8 41:1.0 42:0.012 43:0.0036 44:0.0776 45:0.0 46:0.0336 47:-387.0 48:-6.6 49:-26.6 50:1.0 51:0.0788 52:0.0704 53:0.2416 54:0.0 55:3.029220459637465 56:-14.036243467926477 57:0.027635862036452907 
-0.0 -3.5847047920465046E-4 -1.6300821561086653E-4 1:0.015416666666666667 2:-327.8 3:-0.19999999999999996 4:-19.0 5:0.6 6:0.03166666666666667 7:0.010833333333333334 8:0.16625 9:0.0033333333333333335 10:0.022916666666666665 11:-323.8 12:1.0 13:-24.6 14:1.0 15:0.12666666666666668 16:0.0 17:0.23291666666666666 18:0.0 19:0.04041666666666666 20:-279.2 21:-1.2000000000000002 22:-67.0 23:1.0 24:0.03333333333333333 25:0.014166666666666666 26:0.5558333333333333 27:0.0 28:0.0204 29:-382.0 30:1.0 31:-39.2 32:1.0 33:0.0 34:0.0 35:0.3016 36:0.0 37:0.0328 38:-349.8 39:-1.2000000000000002 40:-69.2 41:1.0 42:0.0312 43:0.0136 44:0.5944 45:0.0 46:0.0284 47:-398.2 48:-0.19999999999999996 49:-20.8 50:0.0 51:0.2416 52:0.0104 53:0.1672 54:0.0076 55:2.9041325450525934 56:-18.43494882292201 57:0.029256446379789088 
-1.4595463173316863E-4 -0.0 -0.0 1:0.02625 2:-320.8 3:-4.6 4:-21.6 5:0.6 6:0.0225 7:0.04708333333333333 8:0.17625 9:0.0020833333333333333 10:0.02375 11:-321.0 12:0.6 13:-27.0 14:1.0 15:0.11875 16:0.00125 17:0.23125 18:0.0 19:0.035833333333333335 20:-299.6 21:0.8 22:-48.6 23:1.0 24:0.11083333333333334 25:4.166666666666667E-4 26:0.35833333333333334 27:0.0 28:0.0208 29:-375.8 30:1.0 31:-45.0 32:0.6 33:4.0E-4 34:0.0 35:0.2956 36:0.0052 37:0.0276 38:-363.6 39:-0.8 40:-54.6 41:-0.19999999999999996 42:0.0604 43:0.0096 44:0.4584 45:0.008 46:0.0396 47:-371.6 48:-4.6 49:-43.6 50:0.6 51:0.2868 52:0.0452 53:0.3464 54:0.002 55:3.020546053112819 56:-17.7004277886672 57:0.030335074029253176 
-4.8327416293272136E-4 -7.034398278956261E-4 -0.0 1:0.015 2:-328.0 3:-0.19999999999999996 4:-18.0 5:-0.19999999999999996 6:0.027916666666666666 7:0.010833333333333334 8:0.16958333333333334 9:0.010416666666666666 10:0.025416666666666667 11:-320.6 12:-0.3999999999999999 13:-26.0 14:0.6 15:0.041666666666666664 16:0.007916666666666667 17:0.23416666666666666 18:0.004166666666666667 19:0.04541666666666667 20:-272.4 21:-0.19999999999999996 22:-74.0 23:0.19999999999999996 24:0.015833333333333335 25:0.005833333333333334 26:0.5979166666666667 27:0.005833333333333334 28:0.0192 29:-386.0 30:1.0 31:-35.2 32:1.0 33:0.0 34:0.0 35:0.2856 36:0.0 37:0.0288 38:-363.2 39:-1.0 40:-54.4 41:-0.6000000000000001 42:0.0264 43:0.0108 44:0.3968 45:0.0132 46:0.0396 47:-376.4 48:-1.6 49:-40.2 50:-1.0 51:0.1204 52:0.018 53:0.33 54:0.0156 55:2.848163733249065 56:-16.227361043515497 57:0.03202484251073293 